digraph Tree {
node [shape=box, style="filled, rounded", color="black", fontname=helvetica] ;
edge [fontname=helvetica] ;
0 [label="0.00348282235873 <= 0.0\ngini = 0.488\nsamples = 123\nvalue = [110, 81]", fillcolor="#e5813943"] ;
1 [label="0.00107186701815 <= 0.009\ngini = 0.422\nsamples = 88\nvalue = [97, 42]", fillcolor="#e5813991"] ;
0 -> 1 [labeldistance=2.5, labelangle=45, headlabel="True"] ;
2 [label="0.00077227717794 <= 0.001\ngini = 0.361\nsamples = 84\nvalue = [97, 30]", fillcolor="#e58139b0"] ;
1 -> 2 ;
3 [label="0.000417322552484 <= 0.024\ngini = 0.187\nsamples = 57\nvalue = [77, 9]", fillcolor="#e58139e1"] ;
2 -> 3 ;
4 [label="0.000295388802581 <= 0.005\ngini = 0.134\nsamples = 56\nvalue = [77, 6]", fillcolor="#e58139eb"] ;
3 -> 4 ;
5 [label="0.000153232941339 <= 0.007\ngini = 0.094\nsamples = 55\nvalue = [77, 4]", fillcolor="#e58139f2"] ;
4 -> 5 ;
6 [label="4.56836109259e-05 <= 0.016\ngini = 0.072\nsamples = 54\nvalue = [77, 3]", fillcolor="#e58139f5"] ;
5 -> 6 ;
7 [label="7.35204000249e-07 <= 0.009\ngini = 0.051\nsamples = 52\nvalue = [75, 2]", fillcolor="#e58139f8"] ;
6 -> 7 ;
8 [label="0.000271880734419 <= 0.004\ngini = 0.055\nsamples = 50\nvalue = [69, 2]", fillcolor="#e58139f8"] ;
7 -> 8 ;
9 [label="1.91953899808e-06 <= 0.0\ngini = 0.059\nsamples = 47\nvalue = [64, 2]", fillcolor="#e58139f7"] ;
8 -> 9 ;
10 [label="0.000709924242667 <= 0.002\ngini = 0.064\nsamples = 43\nvalue = [58, 2]", fillcolor="#e58139f6"] ;
9 -> 10 ;
11 [label="0.000196587734711 <= 0.029\ngini = 0.069\nsamples = 40\nvalue = [54, 2]", fillcolor="#e58139f6"] ;
10 -> 11 ;
12 [label="2.57948932702e-07 <= 0.007\ngini = 0.037\nsamples = 37\nvalue = [52, 1]", fillcolor="#e58139fa"] ;
11 -> 12 ;
13 [label="0.000759419198276 <= 0.001\ngini = 0.04\nsamples = 33\nvalue = [48, 1]", fillcolor="#e58139fa"] ;
12 -> 13 ;
14 [label="3.17011678066e-06 <= 0.011\ngini = 0.048\nsamples = 29\nvalue = [40, 1]", fillcolor="#e58139f9"] ;
13 -> 14 ;
15 [label="2.62075804926e-06 <= 0.069\ngini = 0.051\nsamples = 26\nvalue = [37, 1]", fillcolor="#e58139f8"] ;
14 -> 15 ;
16 [label="3.07855412788e-07 <= 0.035\ngini = 0.057\nsamples = 25\nvalue = [33, 1]", fillcolor="#e58139f7"] ;
15 -> 16 ;
17 [label="1.68823936045e-07 <= 0.01\ngini = 0.061\nsamples = 24\nvalue = [31, 1]", fillcolor="#e58139f7"] ;
16 -> 17 ;
18 [label="1.35088722145e-05 <= 0.081\ngini = 0.062\nsamples = 23\nvalue = [30, 1]", fillcolor="#e58139f6"] ;
17 -> 18 ;
19 [label="6.66339567201e-07 <= 0.033\ngini = 0.067\nsamples = 22\nvalue = [28, 1]", fillcolor="#e58139f6"] ;
18 -> 19 ;
20 [label="5.36773540246e-07 <= 0.031\ngini = 0.074\nsamples = 21\nvalue = [25, 1]", fillcolor="#e58139f5"] ;
19 -> 20 ;
21 [label="3.03393740139e-07 <= 0.035\ngini = 0.08\nsamples = 20\nvalue = [23, 1]", fillcolor="#e58139f4"] ;
20 -> 21 ;
22 [label="6.93471406032e-07 <= 0.148\ngini = 0.083\nsamples = 19\nvalue = [22, 1]", fillcolor="#e58139f3"] ;
21 -> 22 ;
23 [label="8.39465386249e-07 <= 0.029\ngini = 0.091\nsamples = 18\nvalue = [20, 1]", fillcolor="#e58139f2"] ;
22 -> 23 ;
24 [label="4.89688141979e-07 <= 0.015\ngini = 0.1\nsamples = 17\nvalue = [18, 1]", fillcolor="#e58139f1"] ;
23 -> 24 ;
25 [label="5.47298511623e-07 <= 0.005\ngini = 0.105\nsamples = 16\nvalue = [17, 1]", fillcolor="#e58139f0"] ;
24 -> 25 ;
26 [label="1.3135164279e-06 <= 0.054\ngini = 0.111\nsamples = 15\nvalue = [16, 1]", fillcolor="#e58139ef"] ;
25 -> 26 ;
27 [label="3.09339478413e-06 <= 0.118\ngini = 0.124\nsamples = 14\nvalue = [14, 1]", fillcolor="#e58139ed"] ;
26 -> 27 ;
28 [label="9.2018321185e-07 <= 0.006\ngini = 0.133\nsamples = 13\nvalue = [13, 1]", fillcolor="#e58139eb"] ;
27 -> 28 ;
29 [label="1.07354708049e-06 <= 0.014\ngini = 0.142\nsamples = 12\nvalue = [12, 1]", fillcolor="#e58139ea"] ;
28 -> 29 ;
30 [label="4.60650382351e-05 <= 0.042\ngini = 0.153\nsamples = 11\nvalue = [11, 1]", fillcolor="#e58139e8"] ;
29 -> 30 ;
31 [label="0.000541446598085 <= 0.029\ngini = 0.165\nsamples = 10\nvalue = [10, 1]", fillcolor="#e58139e6"] ;
30 -> 31 ;
32 [label="0.000335826120242 <= 0.034\ngini = 0.18\nsamples = 9\nvalue = [9, 1]", fillcolor="#e58139e3"] ;
31 -> 32 ;
33 [label="2.99059543851e-06 <= 0.001\ngini = 0.219\nsamples = 8\nvalue = [7, 1]", fillcolor="#e58139db"] ;
32 -> 33 ;
34 [label="1.21660552432e-05 <= 0.035\ngini = 0.245\nsamples = 7\nvalue = [6, 1]", fillcolor="#e58139d4"] ;
33 -> 34 ;
35 [label="1.1901703006e-05 <= 0.071\ngini = 0.278\nsamples = 6\nvalue = [5, 1]", fillcolor="#e58139cc"] ;
34 -> 35 ;
36 [label="8.37366722783e-06 <= 0.055\ngini = 0.32\nsamples = 5\nvalue = [4, 1]", fillcolor="#e58139bf"] ;
35 -> 36 ;
37 [label="1.39561120464e-05 <= 0.1\ngini = 0.375\nsamples = 4\nvalue = [3, 1]", fillcolor="#e58139aa"] ;
36 -> 37 ;
38 [label="0.000437851537251 <= 0.108\ngini = 0.444\nsamples = 3\nvalue = [2, 1]", fillcolor="#e581397f"] ;
37 -> 38 ;
39 [label="0.000267868552803 <= 0.242\ngini = 0.5\nsamples = 2\nvalue = [1, 1]", fillcolor="#e5813900"] ;
38 -> 39 ;
40 [label="gini = 0.0\nsamples = 1\nvalue = [0, 1]", fillcolor="#399de5ff"] ;
39 -> 40 ;
41 [label="gini = 0.0\nsamples = 1\nvalue = [1, 0]", fillcolor="#e58139ff"] ;
39 -> 41 ;
42 [label="gini = 0.0\nsamples = 1\nvalue = [1, 0]", fillcolor="#e58139ff"] ;
38 -> 42 ;
43 [label="gini = 0.0\nsamples = 1\nvalue = [1, 0]", fillcolor="#e58139ff"] ;
37 -> 43 ;
44 [label="gini = 0.0\nsamples = 1\nvalue = [1, 0]", fillcolor="#e58139ff"] ;
36 -> 44 ;
45 [label="gini = 0.0\nsamples = 1\nvalue = [1, 0]", fillcolor="#e58139ff"] ;
35 -> 45 ;
46 [label="gini = 0.0\nsamples = 1\nvalue = [1, 0]", fillcolor="#e58139ff"] ;
34 -> 46 ;
47 [label="gini = 0.0\nsamples = 1\nvalue = [1, 0]", fillcolor="#e58139ff"] ;
33 -> 47 ;
48 [label="gini = 0.0\nsamples = 1\nvalue = [2, 0]", fillcolor="#e58139ff"] ;
32 -> 48 ;
49 [label="gini = 0.0\nsamples = 1\nvalue = [1, 0]", fillcolor="#e58139ff"] ;
31 -> 49 ;
50 [label="gini = 0.0\nsamples = 1\nvalue = [1, 0]", fillcolor="#e58139ff"] ;
30 -> 50 ;
51 [label="gini = 0.0\nsamples = 1\nvalue = [1, 0]", fillcolor="#e58139ff"] ;
29 -> 51 ;
52 [label="gini = 0.0\nsamples = 1\nvalue = [1, 0]", fillcolor="#e58139ff"] ;
28 -> 52 ;
53 [label="gini = 0.0\nsamples = 1\nvalue = [1, 0]", fillcolor="#e58139ff"] ;
27 -> 53 ;
54 [label="gini = 0.0\nsamples = 1\nvalue = [2, 0]", fillcolor="#e58139ff"] ;
26 -> 54 ;
55 [label="gini = 0.0\nsamples = 1\nvalue = [1, 0]", fillcolor="#e58139ff"] ;
25 -> 55 ;
56 [label="gini = 0.0\nsamples = 1\nvalue = [1, 0]", fillcolor="#e58139ff"] ;
24 -> 56 ;
57 [label="gini = 0.0\nsamples = 1\nvalue = [2, 0]", fillcolor="#e58139ff"] ;
23 -> 57 ;
58 [label="gini = 0.0\nsamples = 1\nvalue = [2, 0]", fillcolor="#e58139ff"] ;
22 -> 58 ;
59 [label="gini = 0.0\nsamples = 1\nvalue = [1, 0]", fillcolor="#e58139ff"] ;
21 -> 59 ;
60 [label="gini = 0.0\nsamples = 1\nvalue = [2, 0]", fillcolor="#e58139ff"] ;
20 -> 60 ;
61 [label="gini = 0.0\nsamples = 1\nvalue = [3, 0]", fillcolor="#e58139ff"] ;
19 -> 61 ;
62 [label="gini = 0.0\nsamples = 1\nvalue = [2, 0]", fillcolor="#e58139ff"] ;
18 -> 62 ;
63 [label="gini = 0.0\nsamples = 1\nvalue = [1, 0]", fillcolor="#e58139ff"] ;
17 -> 63 ;
64 [label="gini = 0.0\nsamples = 1\nvalue = [2, 0]", fillcolor="#e58139ff"] ;
16 -> 64 ;
65 [label="gini = 0.0\nsamples = 1\nvalue = [4, 0]", fillcolor="#e58139ff"] ;
15 -> 65 ;
66 [label="gini = 0.0\nsamples = 3\nvalue = [3, 0]", fillcolor="#e58139ff"] ;
14 -> 66 ;
67 [label="gini = 0.0\nsamples = 4\nvalue = [8, 0]", fillcolor="#e58139ff"] ;
13 -> 67 ;
68 [label="gini = 0.0\nsamples = 4\nvalue = [4, 0]", fillcolor="#e58139ff"] ;
12 -> 68 ;
69 [label="0.000111648896371 <= 0.044\ngini = 0.444\nsamples = 3\nvalue = [2, 1]", fillcolor="#e581397f"] ;
11 -> 69 ;
70 [label="gini = 0.0\nsamples = 2\nvalue = [2, 0]", fillcolor="#e58139ff"] ;
69 -> 70 ;
71 [label="gini = 0.0\nsamples = 1\nvalue = [0, 1]", fillcolor="#399de5ff"] ;
69 -> 71 ;
72 [label="gini = 0.0\nsamples = 3\nvalue = [4, 0]", fillcolor="#e58139ff"] ;
10 -> 72 ;
73 [label="gini = 0.0\nsamples = 4\nvalue = [6, 0]", fillcolor="#e58139ff"] ;
9 -> 73 ;
74 [label="gini = 0.0\nsamples = 3\nvalue = [5, 0]", fillcolor="#e58139ff"] ;
8 -> 74 ;
75 [label="gini = 0.0\nsamples = 2\nvalue = [6, 0]", fillcolor="#e58139ff"] ;
7 -> 75 ;
76 [label="0.000504583729614 <= 0.005\ngini = 0.444\nsamples = 2\nvalue = [2, 1]", fillcolor="#e581397f"] ;
6 -> 76 ;
77 [label="gini = 0.0\nsamples = 1\nvalue = [2, 0]", fillcolor="#e58139ff"] ;
76 -> 77 ;
78 [label="gini = 0.0\nsamples = 1\nvalue = [0, 1]", fillcolor="#399de5ff"] ;
76 -> 78 ;
79 [label="gini = 0.0\nsamples = 1\nvalue = [0, 1]", fillcolor="#399de5ff"] ;
5 -> 79 ;
80 [label="gini = 0.0\nsamples = 1\nvalue = [0, 2]", fillcolor="#399de5ff"] ;
4 -> 80 ;
81 [label="gini = 0.0\nsamples = 1\nvalue = [0, 3]", fillcolor="#399de5ff"] ;
3 -> 81 ;
82 [label="0.0003088045085 <= 0.006\ngini = 0.5\nsamples = 27\nvalue = [20, 21]", fillcolor="#399de50c"] ;
2 -> 82 ;
83 [label="0.00049786330035 <= 0.006\ngini = 0.48\nsamples = 23\nvalue = [14, 21]", fillcolor="#399de555"] ;
82 -> 83 ;
84 [label="0.00041030141795 <= 0.042\ngini = 0.437\nsamples = 22\nvalue = [10, 21]", fillcolor="#399de586"] ;
83 -> 84 ;
85 [label="0.00116187868593 <= 0.012\ngini = 0.375\nsamples = 21\nvalue = [7, 21]", fillcolor="#399de5aa"] ;
84 -> 85 ;
86 [label="0.000144998566716 <= 0.005\ngini = 0.165\nsamples = 17\nvalue = [2, 20]", fillcolor="#399de5e6"] ;
85 -> 86 ;
87 [label="0.000159498423387 <= 0.026\ngini = 0.091\nsamples = 16\nvalue = [1, 20]", fillcolor="#399de5f2"] ;
86 -> 87 ;
88 [label="gini = 0.0\nsamples = 15\nvalue = [0, 20]", fillcolor="#399de5ff"] ;
87 -> 88 ;
89 [label="gini = 0.0\nsamples = 1\nvalue = [1, 0]", fillcolor="#e58139ff"] ;
87 -> 89 ;
90 [label="gini = 0.0\nsamples = 1\nvalue = [1, 0]", fillcolor="#e58139ff"] ;
86 -> 90 ;
91 [label="0.000139561120464 <= 0.007\ngini = 0.278\nsamples = 4\nvalue = [5, 1]", fillcolor="#e58139cc"] ;
85 -> 91 ;
92 [label="gini = 0.0\nsamples = 3\nvalue = [5, 0]", fillcolor="#e58139ff"] ;
91 -> 92 ;
93 [label="gini = 0.0\nsamples = 1\nvalue = [0, 1]", fillcolor="#399de5ff"] ;
91 -> 93 ;
94 [label="gini = 0.0\nsamples = 1\nvalue = [3, 0]", fillcolor="#e58139ff"] ;
84 -> 94 ;
95 [label="gini = 0.0\nsamples = 1\nvalue = [4, 0]", fillcolor="#e58139ff"] ;
83 -> 95 ;
96 [label="gini = 0.0\nsamples = 4\nvalue = [6, 0]", fillcolor="#e58139ff"] ;
82 -> 96 ;
97 [label="gini = 0.0\nsamples = 4\nvalue = [0, 12]", fillcolor="#399de5ff"] ;
1 -> 97 ;
98 [label="0.000408216277357 <= 0.006\ngini = 0.375\nsamples = 35\nvalue = [13, 39]", fillcolor="#399de5aa"] ;
0 -> 98 [labeldistance=2.5, labelangle=-45, headlabel="False"] ;
99 [label="0.000475084460558 <= 0.0\ngini = 0.305\nsamples = 34\nvalue = [9, 39]", fillcolor="#399de5c4"] ;
98 -> 99 ;
100 [label="0.000425132770769 <= 0.013\ngini = 0.461\nsamples = 16\nvalue = [9, 16]", fillcolor="#399de570"] ;
99 -> 100 ;
101 [label="0.000143548581049 <= 0.007\ngini = 0.245\nsamples = 5\nvalue = [6, 1]", fillcolor="#e58139d4"] ;
100 -> 101 ;
102 [label="gini = 0.0\nsamples = 4\nvalue = [6, 0]", fillcolor="#e58139ff"] ;
101 -> 102 ;
103 [label="gini = 0.0\nsamples = 1\nvalue = [0, 1]", fillcolor="#399de5ff"] ;
101 -> 103 ;
104 [label="0.000716840533339 <= 0.01\ngini = 0.278\nsamples = 11\nvalue = [3, 15]", fillcolor="#399de5cc"] ;
100 -> 104 ;
105 [label="gini = 0.0\nsamples = 1\nvalue = [2, 0]", fillcolor="#e58139ff"] ;
104 -> 105 ;
106 [label="0.000157006260522 <= 0.011\ngini = 0.117\nsamples = 10\nvalue = [1, 15]", fillcolor="#399de5ee"] ;
104 -> 106 ;
107 [label="gini = 0.0\nsamples = 9\nvalue = [0, 15]", fillcolor="#399de5ff"] ;
106 -> 107 ;
108 [label="gini = 0.0\nsamples = 1\nvalue = [1, 0]", fillcolor="#e58139ff"] ;
106 -> 108 ;
109 [label="gini = 0.0\nsamples = 18\nvalue = [0, 23]", fillcolor="#399de5ff"] ;
99 -> 109 ;
110 [label="gini = 0.0\nsamples = 1\nvalue = [4, 0]", fillcolor="#e58139ff"] ;
98 -> 110 ;
}